digraph Tree {
node [shape=box, fontname="helvetica"] ;
edge [fontname="helvetica"] ;
0 [label="PIB <= 110.295\nsquared_error = 455.976\nsamples = 84\nvalue = 33.222"] ;
1 [label="Dolar <= 495.63\nsquared_error = 671.308\nsamples = 42\nvalue = 41.795"] ;
0 -> 1 [labeldistance=2.5, labelangle=45, headlabel="True"] ;
2 [label="Dolar <= 244.125\nsquared_error = 502.441\nsamples = 8\nvalue = 62.495"] ;
1 -> 2 ;
3 [label="Dolar <= 129.735\nsquared_error = 177.982\nsamples = 6\nvalue = 52.287"] ;
2 -> 3 ;
4 [label="Mes_number <= 4.5\nsquared_error = 0.783\nsamples = 2\nvalue = 35.045"] ;
3 -> 4 ;
5 [label="squared_error = 0.0\nsamples = 1\nvalue = 34.16"] ;
4 -> 5 ;
6 [label="squared_error = -0.0\nsamples = 1\nvalue = 35.93"] ;
4 -> 6 ;
7 [label="Mes_number <= 4.5\nsquared_error = 43.625\nsamples = 4\nvalue = 60.908"] ;
3 -> 7 ;
8 [label="squared_error = 0.0\nsamples = 1\nvalue = 70.41"] ;
7 -> 8 ;
9 [label="Mes_number <= 7.5\nsquared_error = 18.034\nsamples = 3\nvalue = 57.74"] ;
7 -> 9 ;
10 [label="Dolar <= 184.285\nsquared_error = 0.23\nsamples = 2\nvalue = 60.73"] ;
9 -> 10 ;
11 [label="squared_error = 0.0\nsamples = 1\nvalue = 61.21"] ;
10 -> 11 ;
12 [label="squared_error = -0.0\nsamples = 1\nvalue = 60.25"] ;
10 -> 12 ;
13 [label="squared_error = 0.0\nsamples = 1\nvalue = 51.76"] ;
9 -> 13 ;
14 [label="Mes_number <= 4.5\nsquared_error = 225.3\nsamples = 2\nvalue = 93.12"] ;
2 -> 14 ;
15 [label="squared_error = 0.0\nsamples = 1\nvalue = 78.11"] ;
14 -> 15 ;
16 [label="squared_error = -0.0\nsamples = 1\nvalue = 108.13"] ;
14 -> 16 ;
17 [label="Dolar <= 3347.0\nsquared_error = 586.503\nsamples = 34\nvalue = 36.925"] ;
1 -> 17 ;
18 [label="PIB <= 98.965\nsquared_error = 97.211\nsamples = 15\nvalue = 26.268"] ;
17 -> 18 ;
19 [label="squared_error = 0.0\nsamples = 1\nvalue = 47.51"] ;
18 -> 19 ;
20 [label="Dolar <= 594.75\nsquared_error = 69.622\nsamples = 14\nvalue = 24.751"] ;
18 -> 20 ;
21 [label="Dolar <= 558.25\nsquared_error = 20.137\nsamples = 5\nvalue = 33.824"] ;
20 -> 21 ;
22 [label="Dolar <= 537.33\nsquared_error = 0.144\nsamples = 2\nvalue = 38.63"] ;
21 -> 22 ;
23 [label="squared_error = 0.0\nsamples = 1\nvalue = 38.25"] ;
22 -> 23 ;
24 [label="squared_error = 0.0\nsamples = 1\nvalue = 39.01"] ;
22 -> 24 ;
25 [label="PIB <= 103.35\nsquared_error = 7.801\nsamples = 3\nvalue = 30.62"] ;
21 -> 25 ;
26 [label="squared_error = 0.0\nsamples = 1\nvalue = 27.61"] ;
25 -> 26 ;
27 [label="Dolar <= 569.5\nsquared_error = 4.906\nsamples = 2\nvalue = 32.125"] ;
25 -> 27 ;
28 [label="squared_error = 0.0\nsamples = 1\nvalue = 29.91"] ;
27 -> 28 ;
29 [label="squared_error = 0.0\nsamples = 1\nvalue = 34.34"] ;
27 -> 29 ;
30 [label="Dolar <= 1180.5\nsquared_error = 25.97\nsamples = 9\nvalue = 19.71"] ;
20 -> 30 ;
31 [label="Dolar <= 659.375\nsquared_error = 17.151\nsamples = 6\nvalue = 17.218"] ;
30 -> 31 ;
32 [label="Mes_number <= 7.5\nsquared_error = 1.452\nsamples = 2\nvalue = 22.385"] ;
31 -> 32 ;
33 [label="squared_error = 0.0\nsamples = 1\nvalue = 23.59"] ;
32 -> 33 ;
34 [label="squared_error = 0.0\nsamples = 1\nvalue = 21.18"] ;
32 -> 34 ;
35 [label="PIB <= 104.975\nsquared_error = 4.98\nsamples = 4\nvalue = 14.635"] ;
31 -> 35 ;
36 [label="Dolar <= 788.0\nsquared_error = 0.714\nsamples = 2\nvalue = 16.785"] ;
35 -> 36 ;
37 [label="squared_error = 0.0\nsamples = 1\nvalue = 15.94"] ;
36 -> 37 ;
38 [label="squared_error = -0.0\nsamples = 1\nvalue = 17.63"] ;
36 -> 38 ;
39 [label="Dolar <= 713.125\nsquared_error = 0.0\nsamples = 2\nvalue = 12.485"] ;
35 -> 39 ;
40 [label="squared_error = 0.0\nsamples = 1\nvalue = 12.5"] ;
39 -> 40 ;
41 [label="squared_error = 0.0\nsamples = 1\nvalue = 12.47"] ;
39 -> 41 ;
42 [label="Dolar <= 1698.0\nsquared_error = 6.357\nsamples = 3\nvalue = 24.693"] ;
30 -> 42 ;
43 [label="squared_error = 0.0\nsamples = 1\nvalue = 28.19"] ;
42 -> 43 ;
44 [label="Mes_number <= 4.5\nsquared_error = 0.366\nsamples = 2\nvalue = 22.945"] ;
42 -> 44 ;
45 [label="squared_error = 0.0\nsamples = 1\nvalue = 23.55"] ;
44 -> 45 ;
46 [label="squared_error = 0.0\nsamples = 1\nvalue = 22.34"] ;
44 -> 46 ;
47 [label="Dolar <= 56243.0\nsquared_error = 812.338\nsamples = 19\nvalue = 45.338"] ;
17 -> 47 ;
48 [label="Dolar <= 38013.0\nsquared_error = 905.683\nsamples = 11\nvalue = 59.351"] ;
47 -> 48 ;
49 [label="PIB <= 102.34\nsquared_error = 423.835\nsamples = 9\nvalue = 48.271"] ;
48 -> 49 ;
50 [label="Dolar <= 10865.5\nsquared_error = 6.554\nsamples = 2\nvalue = 72.25"] ;
49 -> 50 ;
51 [label="squared_error = 0.0\nsamples = 1\nvalue = 74.81"] ;
50 -> 51 ;
52 [label="squared_error = 0.0\nsamples = 1\nvalue = 69.69"] ;
50 -> 52 ;
53 [label="Dolar <= 10195.0\nsquared_error = 331.839\nsamples = 7\nvalue = 41.42"] ;
49 -> 53 ;
54 [label="PIB <= 105.43\nsquared_error = 150.545\nsamples = 4\nvalue = 29.135"] ;
53 -> 54 ;
55 [label="Mes_number <= 4.5\nsquared_error = 0.319\nsamples = 2\nvalue = 16.975"] ;
54 -> 55 ;
56 [label="squared_error = 0.0\nsamples = 1\nvalue = 17.54"] ;
55 -> 56 ;
57 [label="squared_error = -0.0\nsamples = 1\nvalue = 16.41"] ;
55 -> 57 ;
58 [label="Dolar <= 7311.0\nsquared_error = 5.04\nsamples = 2\nvalue = 41.295"] ;
54 -> 58 ;
59 [label="squared_error = 0.0\nsamples = 1\nvalue = 43.54"] ;
58 -> 59 ;
60 [label="squared_error = -0.0\nsamples = 1\nvalue = 39.05"] ;
58 -> 60 ;
61 [label="PIB <= 104.915\nsquared_error = 104.031\nsamples = 3\nvalue = 57.8"] ;
53 -> 61 ;
62 [label="squared_error = 0.0\nsamples = 1\nvalue = 70.84"] ;
61 -> 62 ;
63 [label="Dolar <= 19768.5\nsquared_error = 28.516\nsamples = 2\nvalue = 51.28"] ;
61 -> 63 ;
64 [label="squared_error = 0.0\nsamples = 1\nvalue = 45.94"] ;
63 -> 64 ;
65 [label="squared_error = -0.0\nsamples = 1\nvalue = 56.62"] ;
63 -> 65 ;
66 [label="Mes_number <= 10.5\nsquared_error = 35.641\nsamples = 2\nvalue = 109.21"] ;
48 -> 66 ;
67 [label="squared_error = 0.0\nsamples = 1\nvalue = 115.18"] ;
66 -> 67 ;
68 [label="squared_error = -0.0\nsamples = 1\nvalue = 103.24"] ;
66 -> 68 ;
69 [label="PIB <= 98.03\nsquared_error = 42.784\nsamples = 8\nvalue = 26.071"] ;
47 -> 69 ;
70 [label="Mes_number <= 7.5\nsquared_error = 9.532\nsamples = 4\nvalue = 31.522"] ;
69 -> 70 ;
71 [label="PIB <= 83.415\nsquared_error = 0.003\nsamples = 2\nvalue = 34.14"] ;
70 -> 71 ;
72 [label="squared_error = 0.0\nsamples = 1\nvalue = 34.09"] ;
71 -> 72 ;
73 [label="squared_error = 0.0\nsamples = 1\nvalue = 34.19"] ;
71 -> 73 ;
74 [label="PIB <= 97.47\nsquared_error = 5.359\nsamples = 2\nvalue = 28.905"] ;
70 -> 74 ;
75 [label="squared_error = 0.0\nsamples = 1\nvalue = 26.59"] ;
74 -> 75 ;
76 [label="squared_error = -0.0\nsamples = 1\nvalue = 31.22"] ;
74 -> 76 ;
77 [label="Mes_number <= 9.0\nsquared_error = 16.604\nsamples = 4\nvalue = 20.62"] ;
69 -> 77 ;
78 [label="Dolar <= 201000.5\nsquared_error = 3.553\nsamples = 2\nvalue = 17.685"] ;
77 -> 78 ;
79 [label="squared_error = 0.0\nsamples = 1\nvalue = 19.57"] ;
78 -> 79 ;
80 [label="squared_error = -0.0\nsamples = 1\nvalue = 15.8"] ;
78 -> 80 ;
81 [label="Dolar <= 112462.5\nsquared_error = 12.426\nsamples = 2\nvalue = 23.555"] ;
77 -> 81 ;
82 [label="squared_error = 0.0\nsamples = 1\nvalue = 20.03"] ;
81 -> 82 ;
83 [label="squared_error = 0.0\nsamples = 1\nvalue = 27.08"] ;
81 -> 83 ;
84 [label="Dolar <= 59834.5\nsquared_error = 93.64\nsamples = 42\nvalue = 24.649"] ;
0 -> 84 [labeldistance=2.5, labelangle=-45, headlabel="False"] ;
85 [label="Dolar <= 6055.0\nsquared_error = 84.916\nsamples = 34\nvalue = 27.04"] ;
84 -> 85 ;
86 [label="Dolar <= 689.0\nsquared_error = 57.467\nsamples = 32\nvalue = 25.752"] ;
85 -> 86 ;
87 [label="PIB <= 163.055\nsquared_error = 49.089\nsamples = 15\nvalue = 29.823"] ;
86 -> 87 ;
88 [label="PIB <= 161.045\nsquared_error = 24.611\nsamples = 13\nvalue = 28.235"] ;
87 -> 88 ;
89 [label="PIB <= 158.28\nsquared_error = 17.241\nsamples = 12\nvalue = 29.087"] ;
88 -> 89 ;
90 [label="Mes_number <= 4.5\nsquared_error = 7.826\nsamples = 11\nvalue = 28.13"] ;
89 -> 90 ;
91 [label="PIB <= 141.9\nsquared_error = 1.443\nsamples = 4\nvalue = 26.815"] ;
90 -> 91 ;
92 [label="PIB <= 133.685\nsquared_error = 0.662\nsamples = 3\nvalue = 27.377"] ;
91 -> 92 ;
93 [label="squared_error = 0.0\nsamples = 1\nvalue = 26.24"] ;
92 -> 93 ;
94 [label="PIB <= 136.995\nsquared_error = 0.024\nsamples = 2\nvalue = 27.945"] ;
92 -> 94 ;
95 [label="squared_error = 0.0\nsamples = 1\nvalue = 27.79"] ;
94 -> 95 ;
96 [label="squared_error = -0.0\nsamples = 1\nvalue = 28.1"] ;
94 -> 96 ;
97 [label="squared_error = 0.0\nsamples = 1\nvalue = 25.13"] ;
91 -> 97 ;
98 [label="Dolar <= 55.5\nsquared_error = 9.92\nsamples = 7\nvalue = 28.881"] ;
90 -> 98 ;
99 [label="PIB <= 155.59\nsquared_error = 8.979\nsamples = 3\nvalue = 30.997"] ;
98 -> 99 ;
100 [label="Dolar <= 26.55\nsquared_error = 2.544\nsamples = 2\nvalue = 32.905"] ;
99 -> 100 ;
101 [label="squared_error = 0.0\nsamples = 1\nvalue = 31.31"] ;
100 -> 101 ;
102 [label="squared_error = 0.0\nsamples = 1\nvalue = 34.5"] ;
100 -> 102 ;
103 [label="squared_error = 0.0\nsamples = 1\nvalue = 27.18"] ;
99 -> 103 ;
104 [label="Mes_number <= 10.5\nsquared_error = 4.753\nsamples = 4\nvalue = 27.295"] ;
98 -> 104 ;
105 [label="PIB <= 148.84\nsquared_error = 4.117\nsamples = 3\nvalue = 28.04"] ;
104 -> 105 ;
106 [label="Dolar <= 310.5\nsquared_error = 0.462\nsamples = 2\nvalue = 26.66"] ;
105 -> 106 ;
107 [label="squared_error = 0.0\nsamples = 1\nvalue = 25.98"] ;
106 -> 107 ;
108 [label="squared_error = 0.0\nsamples = 1\nvalue = 27.34"] ;
106 -> 108 ;
109 [label="squared_error = 0.0\nsamples = 1\nvalue = 30.8"] ;
105 -> 109 ;
110 [label="squared_error = -0.0\nsamples = 1\nvalue = 25.06"] ;
104 -> 110 ;
111 [label="squared_error = -0.0\nsamples = 1\nvalue = 39.61"] ;
89 -> 111 ;
112 [label="squared_error = 0.0\nsamples = 1\nvalue = 18.02"] ;
88 -> 112 ;
113 [label="Mes_number <= 10.5\nsquared_error = 85.378\nsamples = 2\nvalue = 40.14"] ;
87 -> 113 ;
114 [label="squared_error = 0.0\nsamples = 1\nvalue = 49.38"] ;
113 -> 114 ;
115 [label="squared_error = 0.0\nsamples = 1\nvalue = 30.9"] ;
113 -> 115 ;
116 [label="Dolar <= 792.0\nsquared_error = 37.343\nsamples = 17\nvalue = 22.161"] ;
86 -> 116 ;
117 [label="Mes_number <= 10.5\nsquared_error = 0.0\nsamples = 2\nvalue = 12.285"] ;
116 -> 117 ;
118 [label="squared_error = 0.0\nsamples = 1\nvalue = 12.29"] ;
117 -> 118 ;
119 [label="squared_error = -0.0\nsamples = 1\nvalue = 12.28"] ;
117 -> 119 ;
120 [label="Dolar <= 5022.0\nsquared_error = 27.583\nsamples = 15\nvalue = 23.478"] ;
116 -> 120 ;
121 [label="Dolar <= 1340.0\nsquared_error = 15.367\nsamples = 13\nvalue = 22.469"] ;
120 -> 121 ;
122 [label="Mes_number <= 7.5\nsquared_error = 5.231\nsamples = 7\nvalue = 25.554"] ;
121 -> 122 ;
123 [label="PIB <= 141.18\nsquared_error = 4.786\nsamples = 4\nvalue = 24.232"] ;
122 -> 123 ;
124 [label="squared_error = 0.0\nsamples = 1\nvalue = 27.42"] ;
123 -> 124 ;
125 [label="PIB <= 151.735\nsquared_error = 1.866\nsamples = 3\nvalue = 23.17"] ;
123 -> 125 ;
126 [label="Dolar <= 885.0\nsquared_error = 0.26\nsamples = 2\nvalue = 24.09"] ;
125 -> 126 ;
127 [label="squared_error = 0.0\nsamples = 1\nvalue = 23.58"] ;
126 -> 127 ;
128 [label="squared_error = 0.0\nsamples = 1\nvalue = 24.6"] ;
126 -> 128 ;
129 [label="squared_error = -0.0\nsamples = 1\nvalue = 21.33"] ;
125 -> 129 ;
130 [label="PIB <= 150.475\nsquared_error = 0.387\nsamples = 3\nvalue = 27.317"] ;
122 -> 130 ;
131 [label="squared_error = 0.0\nsamples = 1\nvalue = 27.92"] ;
130 -> 131 ;
132 [label="Mes_number <= 10.5\nsquared_error = 0.308\nsamples = 2\nvalue = 27.015"] ;
130 -> 132 ;
133 [label="squared_error = 0.0\nsamples = 1\nvalue = 26.46"] ;
132 -> 133 ;
134 [label="squared_error = -0.0\nsamples = 1\nvalue = 27.57"] ;
132 -> 134 ;
135 [label="Dolar <= 4555.0\nsquared_error = 3.134\nsamples = 6\nvalue = 18.87"] ;
121 -> 135 ;
136 [label="PIB <= 115.815\nsquared_error = 0.633\nsamples = 5\nvalue = 19.592"] ;
135 -> 136 ;
137 [label="squared_error = 0.0\nsamples = 1\nvalue = 20.81"] ;
136 -> 137 ;
138 [label="Mes_number <= 4.5\nsquared_error = 0.328\nsamples = 4\nvalue = 19.288"] ;
136 -> 138 ;
139 [label="squared_error = 0.0\nsamples = 1\nvalue = 18.47"] ;
138 -> 139 ;
140 [label="PIB <= 156.265\nsquared_error = 0.14\nsamples = 3\nvalue = 19.56"] ;
138 -> 140 ;
141 [label="PIB <= 129.12\nsquared_error = 0.016\nsamples = 2\nvalue = 19.305"] ;
140 -> 141 ;
142 [label="squared_error = 0.0\nsamples = 1\nvalue = 19.18"] ;
141 -> 142 ;
143 [label="squared_error = 0.0\nsamples = 1\nvalue = 19.43"] ;
141 -> 143 ;
144 [label="squared_error = 0.0\nsamples = 1\nvalue = 20.07"] ;
140 -> 144 ;
145 [label="squared_error = -0.0\nsamples = 1\nvalue = 15.26"] ;
135 -> 145 ;
146 [label="Dolar <= 5367.0\nsquared_error = 57.381\nsamples = 2\nvalue = 30.035"] ;
120 -> 146 ;
147 [label="squared_error = 0.0\nsamples = 1\nvalue = 37.61"] ;
146 -> 147 ;
148 [label="squared_error = 0.0\nsamples = 1\nvalue = 22.46"] ;
146 -> 148 ;
149 [label="PIB <= 142.965\nsquared_error = 73.017\nsamples = 2\nvalue = 47.645"] ;
85 -> 149 ;
150 [label="squared_error = 0.0\nsamples = 1\nvalue = 39.1"] ;
149 -> 150 ;
151 [label="squared_error = 0.0\nsamples = 1\nvalue = 56.19"] ;
149 -> 151 ;
152 [label="Dolar <= 264000.0\nsquared_error = 3.109\nsamples = 8\nvalue = 14.485"] ;
84 -> 152 ;
153 [label="Dolar <= 255250.0\nsquared_error = 2.569\nsamples = 4\nvalue = 13.312"] ;
152 -> 153 ;
154 [label="PIB <= 115.64\nsquared_error = 1.501\nsamples = 2\nvalue = 14.655"] ;
153 -> 154 ;
155 [label="squared_error = 0.0\nsamples = 1\nvalue = 13.43"] ;
154 -> 155 ;
156 [label="squared_error = -0.0\nsamples = 1\nvalue = 15.88"] ;
154 -> 156 ;
157 [label="Dolar <= 259250.0\nsquared_error = 0.032\nsamples = 2\nvalue = 11.97"] ;
153 -> 157 ;
158 [label="squared_error = 0.0\nsamples = 1\nvalue = 12.15"] ;
157 -> 158 ;
159 [label="squared_error = 0.0\nsamples = 1\nvalue = 11.79"] ;
157 -> 159 ;
160 [label="PIB <= 141.225\nsquared_error = 0.9\nsamples = 4\nvalue = 15.658"] ;
152 -> 160 ;
161 [label="Mes_number <= 10.5\nsquared_error = 0.434\nsamples = 3\nvalue = 15.22"] ;
160 -> 161 ;
162 [label="PIB <= 128.84\nsquared_error = 0.096\nsamples = 2\nvalue = 15.65"] ;
161 -> 162 ;
163 [label="squared_error = 0.0\nsamples = 1\nvalue = 15.96"] ;
162 -> 163 ;
164 [label="squared_error = -0.0\nsamples = 1\nvalue = 15.34"] ;
162 -> 164 ;
165 [label="squared_error = 0.0\nsamples = 1\nvalue = 14.36"] ;
161 -> 165 ;
166 [label="squared_error = -0.0\nsamples = 1\nvalue = 16.97"] ;
160 -> 166 ;
}